<?xml version="1.0"?>
<opencv_storage>
<cascade>
  <stageType>BOOST</stageType>
  <featureType>HAAR</featureType>
  <height>15</height>
  <width>30</width>
  <stageParams>
    <boostType>GAB</boostType>
    <minHitRate>9.9500000476837158e-01</minHitRate>
    <maxFalseAlarm>5.0000000000000000e-01</maxFalseAlarm>
    <weightTrimRate>9.4999999999999996e-01</weightTrimRate>
    <maxDepth>1</maxDepth>
    <maxWeakCount>100</maxWeakCount></stageParams>
  <featureParams>
    <maxCatCount>0</maxCatCount>
    <featSize>1</featSize>
    <mode>BASIC</mode></featureParams>
  <stageNum>15</stageNum>
  <stages>
    <!-- stage 0 -->
    <_>
      <maxWeakCount>22</maxWeakCount>
      <stageThreshold>-1.4160398244857788e+00</stageThreshold>
      <weakClassifiers>
        <_>
          <internalNodes>
            0 -1 494 5.9245735406875610e-02</internalNodes>
          <leafValues>
            -3.5851851105690002e-01 7.6837211847305298e-01</leafValues></_>
        <_>
          <internalNodes>
            0 -1 515 -6.5522007644176483e-02</internalNodes>
          <leafValues>
            6.2202620506286621e-01 -1.5269832313060760e-01</leafValues></_>
        <_>
          <internalNodes>
            0 -1 554 -4.2020719498395920e-02</internalNodes>
          <leafValues>
            6.9569027423858643e-01 -2.0248341560363770e-01</leafValues></_>
        <_>
          <internalNodes>
            0 -1 708 -1.4357897453010082e-04</internalNodes>
          <leafValues>
            -4.6684139966964722e-01 1.9036826491355896e-01</leafValues></_>
        <_>
          <internalNodes>
            0 -1 664 4.3335271766409278e-04</internalNodes>
          <leafValues>
            1.2872928380966187e-01 -5.9717369079589844e-01</leafValues></_>
        <_>
          <internalNodes>
            0 -1 665 -5.6511512957513332e-04</internalNodes>
          <leafValues>
            -5.2368175983428955e-01 1.3476333022117615e-01</leafValues></_>
        <_>
          <internalNodes>
            0 -1 796 -1.4512086287140846e-02</internalNodes>
          <leafValues>
            4.6478998661041260e-01 -1.5959623456001282e-01</leafValues></_>
        <_>
          <internalNodes>
            0 -1 355 4.7714650630950928e-02</internalNodes>
          <leafValues>
            -1.1159364134073257e-01 5.8043140172958374e-01</leafValues></_>
        <_>
          <internalNodes>
            0 -1 287 4.4656991958618164e-02</internalNodes>
          <leafValues>
            -1.2206144630908966e-01 5.6190377473831177e-01</leafValues></_>
        <_>
          <internalNodes>
            0 -1 211 6.8689763545989990e-02</internalNodes>
          <leafValues>
            1.2010235339403152e-01 -4.1065198183059692e-01</leafValues></_>
        <_>
          <internalNodes>
            0 -1 513 7.4275480583310127e-03</internalNodes>
          <leafValues>
            -1.4482642710208893e-01 4.1721808910369873e-01</leafValues></_>
        <_>
          <internalNodes>
            0 -1 518 2.8990106657147408e-03</internalNodes>
          <leafValues>
            1.2632834911346436e-01 -5.8563226461410522e-01</leafValues></_>
        <_>
          <internalNodes>
            0 -1 350 -5.5268108844757080e-03</internalNodes>
          <leafValues>
            3.1863006949424744e-01 -1.8400721251964569e-01</leafValues></_>
        <_>
          <internalNodes>
            0 -1 546 -1.7156142741441727e-02</internalNodes>
          <leafValues>
            4.4748979806900024e-01 -1.0430096089839935e-01</leafValues></_>
        <_>
          <internalNodes>
            0 -1 760 -2.4715766310691833e-02</internalNodes>
          <leafValues>
            3.5377642512321472e-01 -1.4210231602191925e-01</leafValues></_>
        <_>
          <internalNodes>
            0 -1 825 8.8904267176985741e-03</internalNodes>
          <leafValues>
            -1.2908013164997101e-01 3.7602511048316956e-01</leafValues></_>
        <_>
          <internalNodes>
            0 -1 502 2.8262583538889885e-02</internalNodes>
          <leafValues>
            4.7262873500585556e-02 -8.4366637468338013e-01</leafValues></_>
        <_>
          <internalNodes>
            0 -1 756 2.7735827025026083e-03</internalNodes>
          <leafValues>
            -1.0823836177587509e-01 3.9316803216934204e-01</leafValues></_>
        <_>
          <internalNodes>
            0 -1 518 -1.8661967478692532e-03</internalNodes>
          <leafValues>
            -4.3046739697456360e-01 1.0510431230068207e-01</leafValues></_>
        <_>
          <internalNodes>
            0 -1 428 -1.1010233312845230e-02</internalNodes>
          <leafValues>
            4.8590505123138428e-01 -1.0360950976610184e-01</leafValues></_>
        <_>
          <internalNodes>
            0 -1 427 4.4930023141205311e-03</internalNodes>
          <leafValues>
            -1.2429700046777725e-01 3.1552451848983765e-01</leafValues></_>
        <_>
          <internalNodes>
            0 -1 593 -9.7506574820727110e-04</internalNodes>
          <leafValues>
            -5.1302295923233032e-01 6.7479029297828674e-02</leafValues></_></weakClassifiers></_>
    <!-- stage 1 -->
    <_>
      <maxWeakCount>41</maxWeakCount>
      <stageThreshold>-1.4756987094879150e+00</stageThreshold>
      <weakClassifiers>
        <_>
          <internalNodes>
            0 -1 494 6.9364547729492188e-02</internalNodes>
          <leafValues>
            -3.0292847752571106e-01 7.1878075599670410e-01</leafValues></_>
        <_>
          <internalNodes>
            0 -1 252 3.1000819057226181e-02</internalNodes>
          <leafValues>
            -1.4496086537837982e-01 5.7169455289840698e-01</leafValues></_>
        <_>
          <internalNodes>
            0 -1 548 -8.4939099848270416e-02</internalNodes>
          <leafValues>
            6.7191958427429199e-01 -1.3938678801059723e-01</leafValues></_>
        <_>
          <internalNodes>
            0 -1 78 1.7573311924934387e-01</internalNodes>
          <leafValues>
            -1.3748794794082642e-01 5.7814651727676392e-01</leafValues></_>
        <_>
          <internalNodes>
            0 -1 585 2.4862964637577534e-03</internalNodes>
          <leafValues>
            8.6107835173606873e-02 -5.6100589036941528e-01</leafValues></_>
        <_>
          <internalNodes>
            0 -1 355 -5.5512547492980957e-02</internalNodes>
          <leafValues>
            5.1860773563385010e-01 -9.1205894947052002e-02</leafValues></_>
        <_>
          <internalNodes>
            0 -1 171 4.3217532336711884e-02</internalNodes>
          <leafValues>
            -1.4419543743133545e-01 4.4366568326950073e-01</leafValues></_>
        <_>
          <internalNodes>
            0 -1 708 -5.5246244301088154e-05</internalNodes>
          <leafValues>
            -3.3873191475868225e-01 1.6815006732940674e-01</leafValues></_>
        <_>
          <internalNodes>
            0 -1 778 -1.3205432333052158e-03</internalNodes>
          <leafValues>
            2.0528881251811981e-01 -2.3718689382076263e-01</leafValues></_>
        <_>
          <internalNodes>
            0 -1 593 -3.9880277472548187e-04</internalNodes>
          <leafValues>
            -4.1787308454513550e-01 1.4211285114288330e-01</leafValues></_>
        <_>
          <internalNodes>
            0 -1 349 5.1631946116685867e-03</internalNodes>
          <leafValues>
            5.3860530257225037e-02 -5.2130168676376343e-01</leafValues></_>
        <_>
          <internalNodes>
            0 -1 704 -1.6620470210909843e-02</internalNodes>
          <leafValues>
            2.0888540148735046e-01 -1.7636948823928833e-01</leafValues></_>
        <_>
          <internalNodes>
            0 -1 868 1.9979886710643768e-02</internalNodes>
          <leafValues>
            -1.0105568915605545e-01 3.7207165360450745e-01</leafValues></_>
        <_>
          <internalNodes>
            0 -1 815 1.9780984148383141e-02</internalNodes>
          <leafValues>
            -1.0349359363317490e-01 3.7980917096138000e-01</leafValues></_>
        <_>
          <internalNodes>
            0 -1 705 5.0030387938022614e-03</internalNodes>
          <leafValues>
            -8.3139680325984955e-02 3.6838206648826599e-01</leafValues></_>
        <_>
          <internalNodes>
            0 -1 643 -1.0731396265327930e-02</internalNodes>
          <leafValues>
            2.9302912950515747e-01 -1.3706086575984955e-01</leafValues></_>
        <_>
          <internalNodes>
            0 -1 392 6.5879067406058311e-03</internalNodes>
          <leafValues>
            6.6506624221801758e-02 -5.2362608909606934e-01</leafValues></_>
        <_>
          <internalNodes>
            0 -1 597 -1.0500457137823105e-02</internalNodes>
          <leafValues>
            3.1445911526679993e-01 -1.0976464301347733e-01</leafValues></_>
        <_>
          <internalNodes>
            0 -1 386 -6.8172737956047058e-02</internalNodes>
          <leafValues>
            5.1654398441314697e-01 -5.8515112847089767e-02</leafValues></_>
        <_>
          <internalNodes>
            0 -1 448 3.4853901714086533e-02</internalNodes>
          <leafValues>
            -1.0396172106266022e-01 3.2355913519859314e-01</leafValues></_>
        <_>
          <internalNodes>
            0 -1 358 6.4981941250152886e-05</internalNodes>
          <leafValues>
            1.5952937304973602e-01 -2.2863656282424927e-01</leafValues></_>
        <_>
          <internalNodes>
            0 -1 665 -6.0828251298516989e-04</internalNodes>
          <leafValues>
            -3.9150187373161316e-01 9.1761030256748199e-02</leafValues></_>
        <_>
          <internalNodes>
            0 -1 299 -4.4263880699872971e-03</internalNodes>
          <leafValues>
            2.9702606797218323e-01 -1.0420032590627670e-01</leafValues></_>
        <_>
          <internalNodes>
            0 -1 586 -5.2641136571764946e-03</internalNodes>
          <leafValues>
            -7.1175193786621094e-01 4.7792553901672363e-02</leafValues></_>
        <_>
          <internalNodes>
            0 -1 700 4.9247497372562066e-05</internalNodes>
          <leafValues>
            -1.6637894511222839e-01 1.7683754861354828e-01</leafValues></_>
        <_>
          <internalNodes>
            0 -1 399 2.6044718921184540e-02</internalNodes>
          <leafValues>
            -9.8273776471614838e-02 3.3365887403488159e-01</leafValues></_>
        <_>
          <internalNodes>
            0 -1 33 1.5851158648729324e-02</internalNodes>
          <leafValues>
            -1.2752132117748260e-01 2.4308282136917114e-01</leafValues></_>
        <_>
          <internalNodes>
            0 -1 381 -2.1875511854887009e-02</internalNodes>
          <leafValues>
            3.1000354886054993e-01 -1.0202595591545105e-01</leafValues></_>
        <_>
          <internalNodes>
            0 -1 65 -2.4611582048237324e-03</internalNodes>
          <leafValues>
            -4.6435880661010742e-01 7.1050822734832764e-02</leafValues></_>
        <_>
          <internalNodes>
            0 -1 145 -7.2219416499137878e-02</internalNodes>
          <leafValues>
            -3.9043346047401428e-01 7.6173640787601471e-02</leafValues></_>
        <_>
          <internalNodes>
            0 -1 388 1.3616818469017744e-03</internalNodes>
          <leafValues>
            -1.3134701550006866e-01 2.1201530098915100e-01</leafValues></_>
        <_>
          <internalNodes>
            0 -1 316 -1.0586638934910297e-02</internalNodes>
          <leafValues>
            2.7587804198265076e-01 -9.8514884710311890e-02</leafValues></_>
        <_>
          <internalNodes>
            0 -1 727 5.2253380417823792e-03</internalNodes>
          <leafValues>
            7.2945609688758850e-02 -3.7155866622924805e-01</leafValues></_>
        <_>
          <internalNodes>
            0 -1 118 -3.1670604366809130e-03</internalNodes>
          <leafValues>
            -5.9709918498992920e-01 3.8949884474277496e-02</leafValues></_>
        <_>
          <internalNodes>
            0 -1 672 -6.6632442176342010e-03</internalNodes>
          <leafValues>
            4.0544810891151428e-01 -6.8985976278781891e-02</leafValues></_>
        <_>
          <internalNodes>
            0 -1 476 -1.3517338782548904e-02</internalNodes>
          <leafValues>
            1.6917102038860321e-01 -1.5184611082077026e-01</leafValues></_>
        <_>
          <internalNodes>
            0 -1 589 2.1900072693824768e-02</internalNodes>
          <leafValues>
            -6.1997473239898682e-02 4.2865616083145142e-01</leafValues></_>
        <_>
          <internalNodes>
            0 -1 594 1.7610298527870327e-04</internalNodes>
          <leafValues>
            1.6681183874607086e-01 -1.8461006879806519e-01</leafValues></_>
        <_>
          <internalNodes>
            0 -1 926 3.5072190803475678e-04</internalNodes>
          <leafValues>
            -1.6807588934898376e-01 1.7485068738460541e-01</leafValues></_>
        <_>
          <internalNodes>
            0 -1 664 8.8280125055462122e-04</internalNodes>
          <leafValues>
            5.0329644232988358e-02 -5.1102471351623535e-01</leafValues></_>
        <_>
          <internalNodes>
            0 -1 832 -2.9177640099078417e-03</internalNodes>
          <leafValues>
            2.0830199122428894e-01 -1.3435718417167664e-01</leafValues></_></weakClassifiers></_>
    <!-- stage 2 -->
    <_>
      <maxWeakCount>51</maxWeakCount>
      <stageThreshold>-1.3226951360702515e+00</stageThreshold>
      <weakClassifiers>
        <_>
          <internalNodes>
            0 -1 390 1.1507411301136017e-01</internalNodes>
          <leafValues>
            -2.4900069832801819e-01 6.4663583040237427e-01</leafValues></_>
        <_>
          <internalNodes>
            0 -1 567 -6.8645268678665161e-02</internalNodes>
          <leafValues>
            5.0839823484420776e-01 -1.6653224825859070e-01</leafValues></_>
        <_>
          <internalNodes>
            0 -1 620 -8.2308039069175720e-02</internalNodes>
          <leafValues>
            6.3954061269760132e-01 -1.0163942724466324e-01</leafValues></_>
        <_>
          <internalNodes>
            0 -1 601 4.9343788996338844e-03</internalNodes>
          <leafValues>
            -1.9802828133106232e-01 2.6418691873550415e-01</leafValues></_>
        <_>
          <internalNodes>
            0 -1 404 -6.8933770060539246e-02</internalNodes>
          <leafValues>
            6.1278474330902100e-01 -1.2366734445095062e-01</leafValues></_>
        <_>
          <internalNodes>
            0 -1 626 5.9025385417044163e-04</internalNodes>
          <leafValues>
            -1.2241019308567047e-01 3.2278895378112793e-01</leafValues></_>
        <_>
          <internalNodes>
            0 -1 455 -1.8321560928598046e-03</internalNodes>
          <leafValues>
            -5.1144087314605713e-01 6.0788780450820923e-02</leafValues></_>
        <_>
          <internalNodes>
            0 -1 445 2.9701190069317818e-03</internalNodes>
          <leafValues>
            1.1101198941469193e-01 -4.1938641667366028e-01</leafValues></_>
        <_>
          <internalNodes>
            0 -1 712 -8.9475870481692255e-05</internalNodes>
          <leafValues>
            -2.6942229270935059e-01 1.4251066744327545e-01</leafValues></_>
        <_>
          <internalNodes>
            0 -1 798 -6.6295303404331207e-03</internalNodes>
          <leafValues>
            3.1864511966705322e-01 -1.4823573827743530e-01</leafValues></_>
        <_>
          <internalNodes>
            0 -1 706 6.4427014440298080e-03</internalNodes>
          <leafValues>
            -8.4026120603084564e-02 3.5330826044082642e-01</leafValues></_>
        <_>
          <internalNodes>
            0 -1 117 -1.6121125221252441e-01</internalNodes>
          <leafValues>
            5.0256109237670898e-01 -8.5018791258335114e-02</leafValues></_>
        <_>
          <internalNodes>
            0 -1 300 3.4871506504714489e-03</internalNodes>
          <leafValues>
            -1.2420088052749634e-01 2.6034206151962280e-01</leafValues></_>
        <_>
          <internalNodes>
            0 -1 172 -2.8738368302583694e-02</internalNodes>
          <leafValues>
            3.3939513564109802e-01 -8.4440290927886963e-02</leafValues></_>
        <_>
          <internalNodes>
            0 -1 280 -1.2561637908220291e-02</internalNodes>
          <leafValues>
            2.9627951979637146e-01 -1.0003019869327545e-01</leafValues></_>
        <_>
          <internalNodes>
            0 -1 50 1.0897694155573845e-02</internalNodes>
          <leafValues>
            -1.5468968451023102e-01 2.3509748280048370e-01</leafValues></_>
        <_>
          <internalNodes>
            0 -1 550 -3.8808956742286682e-03</internalNodes>
          <leafValues>
            2.6443329453468323e-01 -1.0505820065736771e-01</leafValues></_>
        <_>
          <internalNodes>
            0 -1 288 -4.9487479031085968e-02</internalNodes>
          <leafValues>
            7.6479649543762207e-01 -4.1718631982803345e-02</leafValues></_>
        <_>
          <internalNodes>
            0 -1 665 -6.7344726994633675e-04</internalNodes>
          <leafValues>
            -4.2207884788513184e-01 7.5506664812564850e-02</leafValues></_>
        <_>
          <internalNodes>
            0 -1 325 -1.8017996102571487e-02</internalNodes>
          <leafValues>
            2.5861164927482605e-01 -1.1110744625329971e-01</leafValues></_>
        <_>
          <internalNodes>
            0 -1 403 3.5853952169418335e-02</internalNodes>
          <leafValues>
            -9.4728961586952209e-02 2.7924931049346924e-01</leafValues></_>
        <_>
          <internalNodes>
            0 -1 584 1.1604880273807794e-04</internalNodes>
          <leafValues>
            1.1769570410251617e-01 -2.7354252338409424e-01</leafValues></_>
        <_>
          <internalNodes>
            0 -1 498 3.4795510582625866e-03</internalNodes>
          <leafValues>
            -1.0400657355785370e-01 2.7794656157493591e-01</leafValues></_>
        <_>
          <internalNodes>
            0 -1 664 6.5555318724364042e-04</internalNodes>
          <leafValues>
            5.9205401688814163e-02 -5.2423524856567383e-01</leafValues></_>
        <_>
          <internalNodes>
            0 -1 552 2.3179700598120689e-02</internalNodes>
          <leafValues>
            -7.9529181122779846e-02 3.6853873729705811e-01</leafValues></_>
        <_>
          <internalNodes>
            0 -1 631 -1.1080587282776833e-02</internalNodes>
          <leafValues>
            2.1927556395530701e-01 -1.2863226234912872e-01</leafValues></_>
        <_>
          <internalNodes>
            0 -1 718 -7.5641187140718102e-04</internalNodes>
          <leafValues>
            -2.7351531386375427e-01 1.0296784341335297e-01</leafValues></_>
        <_>
          <internalNodes>
            0 -1 962 -1.0093468008562922e-03</internalNodes>
          <leafValues>
            2.0925419032573700e-01 -1.3117305934429169e-01</leafValues></_>
        <_>
          <internalNodes>
            0 -1 981 1.0981425875797868e-03</internalNodes>
          <leafValues>
            8.2052603363990784e-02 -3.2737255096435547e-01</leafValues></_>
        <_>
          <internalNodes>
            0 -1 675 -8.7453617015853524e-04</internalNodes>
          <leafValues>
            1.9485245645046234e-01 -1.2543247640132904e-01</leafValues></_>
        <_>
          <internalNodes>
            0 -1 701 1.2343399226665497e-02</internalNodes>
          <leafValues>
            4.2513098567724228e-02 -6.5227693319320679e-01</leafValues></_>
        <_>
          <internalNodes>
            0 -1 614 2.5063103530555964e-03</internalNodes>
          <leafValues>
            -9.1191992163658142e-02 2.5956326723098755e-01</leafValues></_>
        <_>
          <internalNodes>
            0 -1 214 -5.2393856458365917e-04</internalNodes>
          <leafValues>
            1.6408486664295197e-01 -1.3965652883052826e-01</leafValues></_>
        <_>
          <internalNodes>
            0 -1 611 1.4431557618081570e-02</internalNodes>
          <leafValues>
            -1.0252495855093002e-01 2.2161716222763062e-01</leafValues></_>
        <_>
          <internalNodes>
            0 -1 711 -5.3835939615964890e-04</internalNodes>
          <leafValues>
            -1.9387510418891907e-01 1.2484628707170486e-01</leafValues></_>
        <_>
          <internalNodes>
            0 -1 650 -2.7925154194235802e-02</internalNodes>
          <leafValues>
            5.9643292427062988e-01 -4.2866688221693039e-02</leafValues></_>
        <_>
          <internalNodes>
            0 -1 659 8.8322758674621582e-03</internalNodes>
          <leafValues>
            -7.1996182203292847e-02 3.4310787916183472e-01</leafValues></_>
        <_>
          <internalNodes>
            0 -1 24 -2.3826495744287968e-03</internalNodes>
          <leafValues>
            -2.6330083608627319e-01 8.6436964571475983e-02</leafValues></_>
        <_>
          <internalNodes>
            0 -1 780 7.3701282963156700e-04</internalNodes>
          <leafValues>
            -9.5785446465015411e-02 2.4217899143695831e-01</leafValues></_>
        <_>
          <internalNodes>
            0 -1 233 3.9701852947473526e-03</internalNodes>
          <leafValues>
            -8.7425410747528076e-02 2.7195253968238831e-01</leafValues></_>
        <_>
          <internalNodes>
            0 -1 506 3.1218235380947590e-03</internalNodes>
          <leafValues>
            6.1794511973857880e-02 -4.0339311957359314e-01</leafValues></_>
        <_>
          <internalNodes>
            0 -1 518 -1.9810055382549763e-03</internalNodes>
          <leafValues>
            -4.1686597466468811e-01 5.3853001445531845e-02</leafValues></_>
        <_>
          <internalNodes>
            0 -1 842 4.6916792052797973e-04</internalNodes>
          <leafValues>
            -1.2048855423927307e-01 1.9744335114955902e-01</leafValues></_>
        <_>
          <internalNodes>
            0 -1 773 1.4131362549960613e-03</internalNodes>
          <leafValues>
            -1.1525072157382965e-01 1.9206275045871735e-01</leafValues></_>
        <_>
          <internalNodes>
            0 -1 406 1.1282533407211304e-02</internalNodes>
          <leafValues>
            -8.3216279745101929e-02 2.5087663531303406e-01</leafValues></_>
        <_>
          <internalNodes>
            0 -1 868 1.1431025341153145e-02</internalNodes>
          <leafValues>
            -9.9854499101638794e-02 2.2347116470336914e-01</leafValues></_>
        <_>
          <internalNodes>
            0 -1 181 1.8859980627894402e-02</internalNodes>
          <leafValues>
            -9.7367331385612488e-02 2.3012033104896545e-01</leafValues></_>
        <_>
          <internalNodes>
            0 -1 1003 4.7360663302242756e-05</internalNodes>
          <leafValues>
            1.2772201001644135e-01 -1.7003330588340759e-01</leafValues></_>
        <_>
          <internalNodes>
            0 -1 823 3.6037638783454895e-03</internalNodes>
          <leafValues>
            -1.1484123766422272e-01 1.9244857132434845e-01</leafValues></_>
        <_>
          <internalNodes>
            0 -1 697 -6.4824158325791359e-03</internalNodes>
          <leafValues>
            1.3256667554378510e-01 -1.6654361784458160e-01</leafValues></_>
        <_>
          <internalNodes>
            0 -1 830 6.4050331711769104e-03</internalNodes>
          <leafValues>
            -1.1552327871322632e-01 1.9627895951271057e-01</leafValues></_></weakClassifiers></_>
    <!-- stage 3 -->
    <_>
      <maxWeakCount>61</maxWeakCount>
      <stageThreshold>-1.2151857614517212e+00</stageThreshold>
      <weakClassifiers>
        <_>
          <internalNodes>
            0 -1 335 2.2294385731220245e-01</internalNodes>
          <leafValues>
            -1.6957606375217438e-01 7.3198848962783813e-01</leafValues></_>
        <_>
          <internalNodes>
            0 -1 52 8.1769675016403198e-02</internalNodes>
          <leafValues>
            -1.4801096916198730e-01 4.1946732997894287e-01</leafValues></_>
        <_>
          <internalNodes>
            0 -1 484 -1.5901201963424683e-01</internalNodes>
          <leafValues>
            5.5541759729385376e-01 -1.3064044713973999e-01</leafValues></_>
        <_>
          <internalNodes>
            0 -1 619 -2.4895109236240387e-02</internalNodes>
          <leafValues>
            4.1213104128837585e-01 -6.0791540890932083e-02</leafValues></_>
        <_>
          <internalNodes>
            0 -1 708 -8.0024939961731434e-05</internalNodes>
          <leafValues>
            -4.2928120493888855e-01 8.6895890533924103e-02</leafValues></_>
        <_>
          <internalNodes>
            0 -1 449 1.1486543342471123e-02</internalNodes>
          <leafValues>
            -9.3420982360839844e-02 3.8860234618186951e-01</leafValues></_>
        <_>
          <internalNodes>
            0 -1 355 4.5922346413135529e-02</internalNodes>
          <leafValues>
            -9.1884255409240723e-02 4.4643944501876831e-01</leafValues></_>
        <_>
          <internalNodes>
            0 -1 527 -7.3513260576874018e-04</internalNodes>
          <leafValues>
            -3.9438673853874207e-01 7.5255252420902252e-02</leafValues></_>
        <_>
          <internalNodes>
            0 -1 218 -7.6400702819228172e-03</internalNodes>
          <leafValues>
            2.6297101378440857e-01 -1.1901928484439850e-01</leafValues></_>
        <_>
          <internalNodes>
            0 -1 527 2.6039726799353957e-04</internalNodes>
          <leafValues>
            1.1812105029821396e-01 -2.6277381181716919e-01</leafValues></_>
        <_>
          <internalNodes>
            0 -1 740 -2.1391622722148895e-03</internalNodes>
          <leafValues>
            2.3646269738674164e-01 -1.1988904327154160e-01</leafValues></_>
        <_>
          <internalNodes>
            0 -1 633 9.2549309134483337e-02</internalNodes>
          <leafValues>
            -6.9025695323944092e-02 4.1009116172790527e-01</leafValues></_>
        <_>
          <internalNodes>
            0 -1 245 -6.0857892036437988e-02</internalNodes>
          <leafValues>
            7.6011806726455688e-01 -1.5028087422251701e-02</leafValues></_>
        <_>
          <internalNodes>
            0 -1 640 -7.9848878085613251e-03</internalNodes>
          <leafValues>
            3.1243637204170227e-01 -9.8732940852642059e-02</leafValues></_>
        <_>
          <internalNodes>
            0 -1 676 -8.2248135004192591e-04</internalNodes>
          <leafValues>
            2.2500775754451752e-01 -1.3009658455848694e-01</leafValues></_>
        <_>
          <internalNodes>
            0 -1 537 -4.8774164170026779e-03</internalNodes>
          <leafValues>
            1.3155823945999146e-01 -2.0058295130729675e-01</leafValues></_>
        <_>
          <internalNodes>
            0 -1 257 1.1362233757972717e-01</internalNodes>
          <leafValues>
            3.6665759980678558e-02 -6.2510550022125244e-01</leafValues></_>
        <_>
          <internalNodes>
            0 -1 206 -3.3154405653476715e-02</internalNodes>
          <leafValues>
            2.7219769358634949e-01 -9.1600798070430756e-02</leafValues></_>
        <_>
          <internalNodes>
            0 -1 657 -2.1694367751479149e-03</internalNodes>
          <leafValues>
            -4.5170512795448303e-01 5.4057061672210693e-02</leafValues></_>
        <_>
          <internalNodes>
            0 -1 508 -5.7846528943628073e-04</internalNodes>
          <leafValues>
            1.7132166028022766e-01 -1.5736754238605499e-01</leafValues></_>
        <_>
          <internalNodes>
            0 -1 354 8.6703263223171234e-03</internalNodes>
          <leafValues>
            -1.2751001119613647e-01 1.8755835294723511e-01</leafValues></_>
        <_>
          <internalNodes>
            0 -1 177 -2.5692038238048553e-02</internalNodes>
          <leafValues>
            3.0036285519599915e-01 -1.1145509779453278e-01</leafValues></_>
        <_>
          <internalNodes>
            0 -1 284 1.7946157604455948e-02</internalNodes>
          <leafValues>
            -4.4022932648658752e-02 4.4448712468147278e-01</leafValues></_>
        <_>
          <internalNodes>
            0 -1 876 -2.1072293166071177e-03</internalNodes>
          <leafValues>
            2.3424752056598663e-01 -1.0136790573596954e-01</leafValues></_>
        <_>
          <internalNodes>
            0 -1 871 8.8088437914848328e-03</internalNodes>
          <leafValues>
            -7.8357592225074768e-02 2.8468742966651917e-01</leafValues></_>
        <_>
          <internalNodes>
            0 -1 379 1.6925131203606725e-03</internalNodes>
          <leafValues>
            8.0009825527667999e-02 -2.7887755632400513e-01</leafValues></_>
        <_>
          <internalNodes>
            0 -1 864 4.5103020966053009e-03</internalNodes>
          <leafValues>
            3.4334614872932434e-02 -5.4672122001647949e-01</leafValues></_>
        <_>
          <internalNodes>
            0 -1 384 3.9589451625943184e-03</internalNodes>
          <leafValues>
            -1.1513642221689224e-01 1.9434952735900879e-01</leafValues></_>
        <_>
          <internalNodes>
            0 -1 573 7.9649081453680992e-03</internalNodes>
          <leafValues>
            3.2700777053833008e-02 -7.6725745201110840e-01</leafValues></_>
        <_>
          <internalNodes>
            0 -1 593 -2.8478685999289155e-04</internalNodes>
          <leafValues>
            -2.6858976483345032e-01 6.9041475653648376e-02</leafValues></_>
        <_>
          <internalNodes>
            0 -1 110 2.0043898373842239e-02</internalNodes>
          <leafValues>
            3.3833783119916916e-02 -5.8355504274368286e-01</leafValues></_>
        <_>
          <internalNodes>
            0 -1 716 -1.5615827403962612e-02</internalNodes>
          <leafValues>
            2.5844633579254150e-01 -7.7497787773609161e-02</leafValues></_>
        <_>
          <internalNodes>
            0 -1 593 4.0521900518797338e-04</internalNodes>
          <leafValues>
            9.9021859467029572e-02 -2.2864444553852081e-01</leafValues></_>
        <_>
          <internalNodes>
            0 -1 511 3.7967294338159263e-04</internalNodes>
          <leafValues>
            -1.5327082574367523e-01 1.5033030509948730e-01</leafValues></_>
        <_>
          <internalNodes>
            0 -1 747 8.7493543105665594e-05</internalNodes>
          <leafValues>
            1.1211126297712326e-01 -1.8361134827136993e-01</leafValues></_>
        <_>
          <internalNodes>
            0 -1 693 -8.9098489843308926e-04</internalNodes>
          <leafValues>
            2.5654974579811096e-01 -9.0444177389144897e-02</leafValues></_>
        <_>
          <internalNodes>
            0 -1 448 6.5079785883426666e-02</internalNodes>
          <leafValues>
            -5.8991078287363052e-02 3.9854586124420166e-01</leafValues></_>
        <_>
          <internalNodes>
            0 -1 986 -7.1714073419570923e-02</internalNodes>
          <leafValues>
            -8.6349695920944214e-01 2.4191547185182571e-02</leafValues></_>
        <_>
          <internalNodes>
            0 -1 1015 1.5938850119709969e-02</internalNodes>
          <leafValues>
            4.3050996959209442e-02 -4.2119863629341125e-01</leafValues></_>
        <_>
          <internalNodes>
            0 -1 828 1.1279186001047492e-03</internalNodes>
          <leafValues>
            -1.2294772267341614e-01 1.5757800638675690e-01</leafValues></_>
        <_>
          <internalNodes>
            0 -1 866 1.1245790868997574e-02</internalNodes>
          <leafValues>
            -3.9291836321353912e-02 4.9898093938827515e-01</leafValues></_>
        <_>
          <internalNodes>
            0 -1 852 1.4277971349656582e-02</internalNodes>
          <leafValues>
            -1.0443780571222305e-01 2.1011433005332947e-01</leafValues></_>
        <_>
          <internalNodes>
            0 -1 1008 9.1942921280860901e-03</internalNodes>
          <leafValues>
            2.6338912546634674e-02 -8.1049537658691406e-01</leafValues></_>
        <_>
          <internalNodes>
            0 -1 84 1.3902797945775092e-04</internalNodes>
          <leafValues>
            9.8287068307399750e-02 -1.9504013657569885e-01</leafValues></_>
        <_>
          <internalNodes>
            0 -1 407 1.8566980957984924e-02</internalNodes>
          <leafValues>
            -5.4081961512565613e-02 3.8273271918296814e-01</leafValues></_>
        <_>
          <internalNodes>
            0 -1 231 -1.9879709929227829e-02</internalNodes>
          <leafValues>
            3.5676077008247375e-01 -5.4650954902172089e-02</leafValues></_>
        <_>
          <internalNodes>
            0 -1 703 -3.1724234577268362e-03</internalNodes>
          <leafValues>
            1.2447465211153030e-01 -1.6519902646541595e-01</leafValues></_>
        <_>
          <internalNodes>
            0 -1 881 -5.2600132767111063e-04</internalNodes>
          <leafValues>
            1.3404607772827148e-01 -1.4344787597656250e-01</leafValues></_>
        <_>
          <internalNodes>
            0 -1 622 -2.7734465897083282e-02</internalNodes>
          <leafValues>
            5.7057136297225952e-01 -3.4109611064195633e-02</leafValues></_>
        <_>
          <internalNodes>
            0 -1 506 3.3259587362408638e-03</internalNodes>
          <leafValues>
            5.3577229380607605e-02 -3.9048132300376892e-01</leafValues></_>
        <_>
          <internalNodes>
            0 -1 906 9.9808424711227417e-03</internalNodes>
          <leafValues>
            -6.6691800951957703e-02 3.0244281888008118e-01</leafValues></_>
        <_>
          <internalNodes>
            0 -1 598 1.4990665018558502e-02</internalNodes>
          <leafValues>
            -1.2051035463809967e-01 1.5925304591655731e-01</leafValues></_>
        <_>
          <internalNodes>
            0 -1 765 6.9329659454524517e-03</internalNodes>
          <leafValues>
            2.5055799633264542e-02 -6.8283241987228394e-01</leafValues></_>
        <_>
          <internalNodes>
            0 -1 457 -2.3586952011100948e-04</internalNodes>
          <leafValues>
            1.4899402856826782e-01 -1.2868778407573700e-01</leafValues></_>
        <_>
          <internalNodes>
            0 -1 63 -8.4550832980312407e-05</internalNodes>
          <leafValues>
            -1.7618399858474731e-01 1.0665906965732574e-01</leafValues></_>
        <_>
          <internalNodes>
            0 -1 936 5.9482199139893055e-04</internalNodes>
          <leafValues>
            -1.2293270975351334e-01 1.5678167343139648e-01</leafValues></_>
        <_>
          <internalNodes>
            0 -1 439 5.6970054283738136e-03</internalNodes>
          <leafValues>
            5.8291036635637283e-02 -3.2116621732711792e-01</leafValues></_>
        <_>
          <internalNodes>
            0 -1 35 1.2312550097703934e-03</internalNodes>
          <leafValues>
            -1.1762450635433197e-01 1.6690312325954437e-01</leafValues></_>
        <_>
          <internalNodes>
            0 -1 198 1.0716469027101994e-02</internalNodes>
          <leafValues>
            2.2845717146992683e-02 -8.7002021074295044e-01</leafValues></_>
        <_>
          <internalNodes>
            0 -1 401 -7.3362877592444420e-03</internalNodes>
          <leafValues>
            4.1752469539642334e-01 -4.8262797296047211e-02</leafValues></_>
        <_>
          <internalNodes>
            0 -1 965 -5.8649284765124321e-03</internalNodes>
          <leafValues>
            -5.2524816989898682e-01 4.1018079966306686e-02</leafValues></_></weakClassifiers></_>
    <!-- stage 4 -->
    <_>
      <maxWeakCount>67</maxWeakCount>
      <stageThreshold>-1.1718477010726929e+00</stageThreshold>
      <weakClassifiers>
        <_>
          <internalNodes>
            0 -1 610 6.2872231006622314e-02</internalNodes>
          <leafValues>
            -1.7946468293666840e-01 6.1997562646865845e-01</leafValues></_>
        <_>
          <internalNodes>
            0 -1 319 -1.0101862251758575e-01</internalNodes>
          <leafValues>
            7.6685595512390137e-01 -5.3640305995941162e-02</leafValues></_>
        <_>
          <internalNodes>
            0 -1 719 3.9357379137072712e-05</internalNodes>
          <leafValues>
            -2.6597926020622253e-01 1.7218030989170074e-01</leafValues></_>
        <_>
          <internalNodes>
            0 -1 240 1.0759355127811432e-01</internalNodes>
          <leafValues>
            -5.7342793792486191e-02 5.3476262092590332e-01</leafValues></_>
        <_>
          <internalNodes>
            0 -1 495 -2.0818181335926056e-01</internalNodes>
          <leafValues>
            6.0797554254531860e-01 -7.3971562087535858e-02</leafValues></_>
        <_>
          <internalNodes>
            0 -1 656 -6.8417913280427456e-04</internalNodes>
          <leafValues>
            -4.9623122811317444e-01 7.1544542908668518e-02</leafValues></_>
        <_>
          <internalNodes>
            0 -1 520 7.0701325312256813e-03</internalNodes>
          <leafValues>
            -5.2312783896923065e-02 4.0740790963172913e-01</leafValues></_>
        <_>
          <internalNodes>
            0 -1 707 -6.1448285123333335e-05</internalNodes>
          <leafValues>
            -2.0960161089897156e-01 1.4265286922454834e-01</leafValues></_>
        <_>
          <internalNodes>
            0 -1 458 1.3839785242453218e-04</internalNodes>
          <leafValues>
            1.1639074981212616e-01 -2.3450559377670288e-01</leafValues></_>
        <_>
          <internalNodes>
            0 -1 459 2.8517807368189096e-03</internalNodes>
          <leafValues>
            -1.4601173996925354e-01 2.3614123463630676e-01</leafValues></_>
        <_>
          <internalNodes>
            0 -1 408 -3.0130876228213310e-02</internalNodes>
          <leafValues>
            4.3140497803688049e-01 -8.6549356579780579e-02</leafValues></_>
        <_>
          <internalNodes>
            0 -1 592 1.4163512969389558e-04</internalNodes>
          <leafValues>
            1.2033545970916748e-01 -2.6018136739730835e-01</leafValues></_>
        <_>
          <internalNodes>
            0 -1 555 2.1647211164236069e-02</internalNodes>
          <leafValues>
            -7.7214382588863373e-02 3.2375800609588623e-01</leafValues></_>
        <_>
          <internalNodes>
            0 -1 243 -1.3965839520096779e-02</internalNodes>
          <leafValues>
            2.4870301783084869e-01 -9.6999093890190125e-02</leafValues></_>
        <_>
          <internalNodes>
            0 -1 592 -1.8222839571535587e-04</internalNodes>
          <leafValues>
            -2.3668137192726135e-01 9.5722578465938568e-02</leafValues></_>
        <_>
          <internalNodes>
            0 -1 501 9.3058506026864052e-03</internalNodes>
          <leafValues>
            5.5490948259830475e-02 -3.9092350006103516e-01</leafValues></_>
        <_>
          <internalNodes>
            0 -1 797 5.1605058833956718e-03</internalNodes>
          <leafValues>
            -8.9729174971580505e-02 2.2514295578002930e-01</leafValues></_>
        <_>
          <internalNodes>
            0 -1 786 2.7988669462502003e-03</internalNodes>
          <leafValues>
            -1.0686924308538437e-01 2.0326669514179230e-01</leafValues></_>
        <_>
          <internalNodes>
            0 -1 22 -2.3078683763742447e-02</internalNodes>
          <leafValues>
            1.9369471073150635e-01 -1.0190860182046890e-01</leafValues></_>
        <_>
          <internalNodes>
            0 -1 387 1.7522440757602453e-03</internalNodes>
          <leafValues>
            -1.0975644737482071e-01 1.9110351800918579e-01</leafValues></_>
        <_>
          <internalNodes>
            0 -1 44 1.1401789262890816e-02</internalNodes>
          <leafValues>
            -1.0072007775306702e-01 2.1468874812126160e-01</leafValues></_>
        <_>
          <internalNodes>
            0 -1 46 -1.6989699006080627e-01</internalNodes>
          <leafValues>
            4.6522247791290283e-01 -4.4740218669176102e-02</leafValues></_>
        <_>
          <internalNodes>
            0 -1 201 1.6726490110158920e-02</internalNodes>
          <leafValues>
            -1.0233737528324127e-01 2.2475434839725494e-01</leafValues></_>
        <_>
          <internalNodes>
            0 -1 615 1.7192693194374442e-03</internalNodes>
          <leafValues>
            -8.5699848830699921e-02 2.2587613761425018e-01</leafValues></_>
        <_>
          <internalNodes>
            0 -1 660 -2.9575046151876450e-02</internalNodes>
          <leafValues>
            6.0936754941940308e-01 -2.5925775989890099e-02</leafValues></_>
        <_>
          <internalNodes>
            0 -1 665 -3.3225677907466888e-04</internalNodes>
          <leafValues>
            -2.6422309875488281e-01 8.1777587532997131e-02</leafValues></_>
        <_>
          <internalNodes>
            0 -1 953 -3.6459285183809698e-04</internalNodes>
          <leafValues>
            1.6510267555713654e-01 -1.1338225752115250e-01</leafValues></_>
        <_>
          <internalNodes>
            0 -1 276 1.9431363034527749e-04</internalNodes>
          <leafValues>
            -1.4072300493717194e-01 1.3224118947982788e-01</leafValues></_>
        <_>
          <internalNodes>
            0 -1 712 4.6748952008783817e-03</internalNodes>
          <leafValues>
            4.1559554636478424e-02 -4.7904279828071594e-01</leafValues></_>
        <_>
          <internalNodes>
            0 -1 582 3.7283986806869507e-02</internalNodes>
          <leafValues>
            -7.8317739069461823e-02 2.4519857764244080e-01</leafValues></_>
        <_>
          <internalNodes>
            0 -1 453 -4.3475134298205376e-03</internalNodes>
          <leafValues>
            1.8690603971481323e-01 -1.1660766601562500e-01</leafValues></_>
        <_>
          <internalNodes>
            0 -1 31 2.2889185696840286e-02</internalNodes>
          <leafValues>
            3.9966657757759094e-02 -4.4362917542457581e-01</leafValues></_>
        <_>
          <internalNodes>
            0 -1 725 6.2875598669052124e-03</internalNodes>
          <leafValues>
            -6.0289300978183746e-02 2.9635617136955261e-01</leafValues></_>
        <_>
          <internalNodes>
            0 -1 353 -6.3747499370947480e-04</internalNodes>
          <leafValues>
            1.1893499642610550e-01 -1.4956447482109070e-01</leafValues></_>
        <_>
          <internalNodes>
            0 -1 275 -1.8599519133567810e-01</internalNodes>
          <leafValues>
            -7.5970906019210815e-01 2.2715575993061066e-02</leafValues></_>
        <_>
          <internalNodes>
            0 -1 764 -2.1073298528790474e-02</internalNodes>
          <leafValues>
            -4.3962937593460083e-01 3.5252887755632401e-02</leafValues></_>
        <_>
          <internalNodes>
            0 -1 196 -2.4774940684437752e-03</internalNodes>
          <leafValues>
            1.4290213584899902e-01 -1.2421144545078278e-01</leafValues></_>
        <_>
          <internalNodes>
            0 -1 128 -6.5599456429481506e-02</internalNodes>
          <leafValues>
            -4.7707369923591614e-01 4.2005095630884171e-02</leafValues></_>
        <_>
          <internalNodes>
            0 -1 728 -3.7101721391081810e-03</internalNodes>
          <leafValues>
            -4.2205426096916199e-01 3.8674898445606232e-02</leafValues></_>
        <_>
          <internalNodes>
            0 -1 357 5.3109060972929001e-03</internalNodes>
          <leafValues>
            3.2316707074642181e-02 -4.9595722556114197e-01</leafValues></_>
        <_>
          <internalNodes>
            0 -1 957 1.1634776601567864e-03</internalNodes>
          <leafValues>
            -9.7327418625354767e-02 1.8239904940128326e-01</leafValues></_>
        <_>
          <internalNodes>
            0 -1 756 2.8246073052287102e-03</internalNodes>
          <leafValues>
            -6.4693957567214966e-02 2.6453474164009094e-01</leafValues></_>
        <_>
          <internalNodes>
            0 -1 875 -2.1482023294083774e-04</internalNodes>
          <leafValues>
            1.3549385964870453e-01 -1.3628274202346802e-01</leafValues></_>
        <_>
          <internalNodes>
            0 -1 698 -6.6153615713119507e-02</internalNodes>
          <leafValues>
            -5.3187000751495361e-01 4.3940961360931396e-02</leafValues></_>
        <_>
          <internalNodes>
            0 -1 834 1.8631584243848920e-03</internalNodes>
          <leafValues>
            -1.0365334153175354e-01 2.0628240704536438e-01</leafValues></_>
        <_>
          <internalNodes>
            0 -1 997 -5.1324320957064629e-03</internalNodes>
          <leafValues>
            -6.6745150089263916e-01 3.0726648867130280e-02</leafValues></_>
        <_>
          <internalNodes>
            0 -1 827 3.5701422020792961e-03</internalNodes>
          <leafValues>
            4.4613778591156006e-02 -3.8089504837989807e-01</leafValues></_>
        <_>
          <internalNodes>
            0 -1 1019 -1.7834480386227369e-03</internalNodes>
          <leafValues>
            2.8665712475776672e-01 -6.5232448279857635e-02</leafValues></_>
        <_>
          <internalNodes>
            0 -1 886 -1.4277379959821701e-02</internalNodes>
          <leafValues>
            -6.7709493637084961e-01 3.1578209251165390e-02</leafValues></_>
        <_>
          <internalNodes>
            0 -1 987 -2.1493561565876007e-02</internalNodes>
          <leafValues>
            -8.5988378524780273e-01 1.6222056001424789e-02</leafValues></_>
        <_>
          <internalNodes>
            0 -1 927 6.5587144345045090e-03</internalNodes>
          <leafValues>
            1.4785224571824074e-02 -8.2347869873046875e-01</leafValues></_>
        <_>
          <internalNodes>
            0 -1 361 -1.4344674127642065e-04</internalNodes>
          <leafValues>
            -1.5702110528945923e-01 1.0370045155286789e-01</leafValues></_>
        <_>
          <internalNodes>
            0 -1 293 -8.2037504762411118e-03</internalNodes>
          <leafValues>
            4.1773188114166260e-01 -4.2512040585279465e-02</leafValues></_>
        <_>
          <internalNodes>
            0 -1 991 1.7105933278799057e-02</internalNodes>
          <leafValues>
            4.3726891279220581e-02 -4.0547248721122742e-01</leafValues></_>
        <_>
          <internalNodes>
            0 -1 612 -1.2666118144989014e-01</internalNodes>
          <leafValues>
            -7.3198223114013672e-01 1.7793878912925720e-02</leafValues></_>
        <_>
          <internalNodes>
            0 -1 291 6.8284915760159492e-03</internalNodes>
          <leafValues>
            -1.0755563527345657e-01 1.4644075930118561e-01</leafValues></_>
        <_>
          <internalNodes>
            0 -1 418 -3.8912226445972919e-03</internalNodes>
          <leafValues>
            2.3343996703624725e-01 -6.7990072071552277e-02</leafValues></_>
        <_>
          <internalNodes>
            0 -1 655 1.9291951321065426e-04</internalNodes>
          <leafValues>
            7.6189994812011719e-02 -2.3578050732612610e-01</leafValues></_>
        <_>
          <internalNodes>
            0 -1 627 1.5432862564921379e-03</internalNodes>
          <leafValues>
            -8.6597383022308350e-02 2.4725544452667236e-01</leafValues></_>
        <_>
          <internalNodes>
            0 -1 315 1.1699838796630502e-04</internalNodes>
          <leafValues>
            1.1684884876012802e-01 -1.5075260400772095e-01</leafValues></_>
        <_>
          <internalNodes>
            0 -1 38 2.0949126780033112e-01</internalNodes>
          <leafValues>
            -8.3054818212985992e-02 2.3091545701026917e-01</leafValues></_>
        <_>
          <internalNodes>
            0 -1 564 -5.3657335229218006e-03</internalNodes>
          <leafValues>
            1.9655205309391022e-01 -1.0164190083742142e-01</leafValues></_>
        <_>
          <internalNodes>
            0 -1 437 7.4507305398583412e-03</internalNodes>
          <leafValues>
            -9.2396534979343414e-02 2.2559422254562378e-01</leafValues></_>
        <_>
          <internalNodes>
            0 -1 652 5.6419959291815758e-03</internalNodes>
          <leafValues>
            -7.6319865882396698e-02 2.6983404159545898e-01</leafValues></_>
        <_>
          <internalNodes>
            0 -1 455 -7.0670619606971741e-04</internalNodes>
          <leafValues>
            -2.4639265239238739e-01 8.2554958760738373e-02</leafValues></_>
        <_>
          <internalNodes>
            0 -1 454 4.3526623630896211e-04</internalNodes>
          <leafValues>
            8.6633622646331787e-02 -2.2524757683277130e-01</leafValues></_>
        <_>
          <internalNodes>
            0 -1 897 -6.0431901365518570e-02</internalNodes>
          <leafValues>
            7.0705652236938477e-01 -2.7279699221253395e-02</leafValues></_></weakClassifiers></_>
    <!-- stage 5 -->
    <_>
      <maxWeakCount>58</maxWeakCount>
      <stageThreshold>-1.2289729118347168e+00</stageThreshold>
      <weakClassifiers>
        <_>
          <internalNodes>
            0 -1 29 2.3134560883045197e-01</internalNodes>
          <leafValues>
            -2.4987775087356567e-01 5.7914692163467407e-01</leafValues></_>
        <_>
          <internalNodes>
            0 -1 637 -3.8405299186706543e-02</internalNodes>
          <leafValues>
            6.8008595705032349e-01 -5.6819040328264236e-02</leafValues></_>
        <_>
          <internalNodes>
            0 -1 708 -2.0448531722649932e-04</internalNodes>
          <leafValues>
            -6.0194182395935059e-01 9.5484286546707153e-02</leafValues></_>
        <_>
          <internalNodes>
            0 -1 665 3.2004082459025085e-04</internalNodes>
          <leafValues>
            1.5241160988807678e-01 -3.3389535546302795e-01</leafValues></_>
        <_>
          <internalNodes>
            0 -1 617 5.4431788623332977e-02</internalNodes>
          <leafValues>
            -8.6554177105426788e-02 4.3521654605865479e-01</leafValues></_>
        <_>
          <internalNodes>
            0 -1 364 -1.2859066948294640e-02</internalNodes>
          <leafValues>
            2.3605094850063324e-01 -2.1937289834022522e-01</leafValues></_>
        <_>
          <internalNodes>
            0 -1 513 7.3892925865948200e-03</internalNodes>
          <leafValues>
            -1.0443877428770065e-01 3.6349847912788391e-01</leafValues></_>
        <_>
          <internalNodes>
            0 -1 665 -4.4048024574294686e-04</internalNodes>
          <leafValues>
            -3.8671445846557617e-01 1.2505543231964111e-01</leafValues></_>
        <_>
          <internalNodes>
            0 -1 45 1.5301862731575966e-02</internalNodes>
          <leafValues>
            -1.2493995577096939e-01 2.6040360331535339e-01</leafValues></_>
        <_>
          <internalNodes>
            0 -1 631 -7.6495734974741936e-03</internalNodes>
          <leafValues>
            1.8752117455005646e-01 -1.5029028058052063e-01</leafValues></_>
        <_>
          <internalNodes>
            0 -1 587 4.7602146863937378e-02</internalNodes>
          <leafValues>
            -5.4472759366035461e-02 7.0206218957901001e-01</leafValues></_>
        <_>
          <internalNodes>
            0 -1 667 1.5160632319748402e-03</internalNodes>
          <leafValues>
            9.4997875392436981e-02 -3.0757185816764832e-01</leafValues></_>
        <_>
          <internalNodes>
            0 -1 160 -6.7488355562090874e-03</internalNodes>
          <leafValues>
            -2.3944629728794098e-01 1.1333586275577545e-01</leafValues></_>
        <_>
          <internalNodes>
            0 -1 942 2.8604064136743546e-02</internalNodes>
          <leafValues>
            -3.2100811600685120e-02 5.8132958412170410e-01</leafValues></_>
        <_>
          <internalNodes>
            0 -1 23 -1.0480059310793877e-02</internalNodes>
          <leafValues>
            -3.0343818664550781e-01 7.5910732150077820e-02</leafValues></_>
        <_>
          <internalNodes>
            0 -1 269 6.0832519084215164e-03</internalNodes>
          <leafValues>
            -6.0941431671380997e-02 4.0272381901741028e-01</leafValues></_>
        <_>
          <internalNodes>
            0 -1 671 -5.9196690563112497e-04</internalNodes>
          <leafValues>
            -2.7490761876106262e-01 8.6184270679950714e-02</leafValues></_>
        <_>
          <internalNodes>
            0 -1 465 1.9933877512812614e-02</internalNodes>
          <leafValues>
            -5.2304722368717194e-02 5.1469027996063232e-01</leafValues></_>
        <_>
          <internalNodes>
            0 -1 518 1.2996569275856018e-03</internalNodes>
          <leafValues>
            7.7326804399490356e-02 -3.1961736083030701e-01</leafValues></_>
        <_>
          <internalNodes>
            0 -1 286 2.7221193537116051e-02</internalNodes>
          <leafValues>
            -8.8979505002498627e-02 2.7632626891136169e-01</leafValues></_>
        <_>
          <internalNodes>
            0 -1 527 -2.0233672694303095e-04</internalNodes>
          <leafValues>
            -2.3070897161960602e-01 1.0623574256896973e-01</leafValues></_>
        <_>
          <internalNodes>
            0 -1 125 2.0137554034590721e-02</internalNodes>
          <leafValues>
            -7.1469813585281372e-02 3.5106858611106873e-01</leafValues></_>
        <_>
          <internalNodes>
            0 -1 87 -3.8317164778709412e-01</internalNodes>
          <leafValues>
            -7.7090346813201904e-01 2.8645332902669907e-02</leafValues></_>
        <_>
          <internalNodes>
            0 -1 32 2.3028178140521049e-02</internalNodes>
          <leafValues>
            2.4105872958898544e-02 -6.9718271493911743e-01</leafValues></_>
        <_>
          <internalNodes>
            0 -1 816 -3.8915983168408275e-04</internalNodes>
          <leafValues>
            1.6330140829086304e-01 -1.3745585083961487e-01</leafValues></_>
        <_>
          <internalNodes>
            0 -1 937 1.7235402483493090e-03</internalNodes>
          <leafValues>
            -1.0152226686477661e-01 2.0491714775562286e-01</leafValues></_>
        <_>
          <internalNodes>
            0 -1 76 2.6035527698695660e-03</internalNodes>
          <leafValues>
            4.9597382545471191e-02 -4.1224560141563416e-01</leafValues></_>
        <_>
          <internalNodes>
            0 -1 616 -2.0249079912900925e-02</internalNodes>
          <leafValues>
            4.2856448888778687e-01 -4.8208113759756088e-02</leafValues></_>
        <_>
          <internalNodes>
            0 -1 435 -1.2032559141516685e-02</internalNodes>
          <leafValues>
            1.8653567135334015e-01 -1.1575531959533691e-01</leafValues></_>
        <_>
          <internalNodes>
            0 -1 584 7.9157907748594880e-05</internalNodes>
          <leafValues>
            1.0888630896806717e-01 -2.4178723990917206e-01</leafValues></_>
        <_>
          <internalNodes>
            0 -1 1001 -2.6567358523607254e-02</internalNodes>
          <leafValues>
            -5.5466455221176147e-01 3.6304693669080734e-02</leafValues></_>
        <_>
          <internalNodes>
            0 -1 1009 -3.3580358140170574e-03</internalNodes>
          <leafValues>
            -3.6393329501152039e-01 5.5489927530288696e-02</leafValues></_>
        <_>
          <internalNodes>
            0 -1 959 -2.3299932479858398e-02</internalNodes>
          <leafValues>
            3.0170342326164246e-01 -7.2345875203609467e-02</leafValues></_>
        <_>
          <internalNodes>
            0 -1 88 4.3806750327348709e-03</internalNodes>
          <leafValues>
            2.9317982494831085e-02 -6.7811739444732666e-01</leafValues></_>
        <_>
          <internalNodes>
            0 -1 879 -2.5016868487000465e-02</internalNodes>
          <leafValues>
            2.8987047076225281e-01 -7.0977106690406799e-02</leafValues></_>
        <_>
          <internalNodes>
            0 -1 433 9.6368286758661270e-03</internalNodes>
          <leafValues>
            -7.8009776771068573e-02 2.3807872831821442e-01</leafValues></_>
        <_>
          <internalNodes>
            0 -1 507 1.0490326210856438e-02</internalNodes>
          <leafValues>
            -1.1098137497901917e-01 2.3497973382472992e-01</leafValues></_>
        <_>
          <internalNodes>
            0 -1 326 -1.7071267589926720e-02</internalNodes>
          <leafValues>
            2.1267968416213989e-01 -9.9839329719543457e-02</leafValues></_>
        <_>
          <internalNodes>
            0 -1 711 -1.5438834670931101e-03</internalNodes>
          <leafValues>
            -2.3734834790229797e-01 7.7664837241172791e-02</leafValues></_>
        <_>
          <internalNodes>
            0 -1 807 -1.2792233377695084e-02</internalNodes>
          <leafValues>
            2.4735352396965027e-01 -7.8479781746864319e-02</leafValues></_>
        <_>
          <internalNodes>
            0 -1 417 -1.0885486379265785e-02</internalNodes>
          <leafValues>
            1.6604338586330414e-01 -1.2994049489498138e-01</leafValues></_>
        <_>
          <internalNodes>
            0 -1 862 -1.6063284128904343e-03</internalNodes>
          <leafValues>
            -4.1821488738059998e-01 4.6058423817157745e-02</leafValues></_>
        <_>
          <internalNodes>
            0 -1 857 -6.0640625655651093e-02</internalNodes>
          <leafValues>
            5.9695380926132202e-01 -3.3553332090377808e-02</leafValues></_>
        <_>
          <internalNodes>
            0 -1 748 9.6576724899932742e-04</internalNodes>
          <leafValues>
            -1.0412442684173584e-01 1.7868842184543610e-01</leafValues></_>
        <_>
          <internalNodes>
            0 -1 704 -1.2383483350276947e-02</internalNodes>
          <leafValues>
            1.4633029699325562e-01 -1.6073204576969147e-01</leafValues></_>
        <_>
          <internalNodes>
            0 -1 39 2.4815923534333706e-03</internalNodes>
          <leafValues>
            2.9847163707017899e-02 -5.9053516387939453e-01</leafValues></_>
        <_>
          <internalNodes>
            0 -1 584 -9.3055819161236286e-04</internalNodes>
          <leafValues>
            -3.0260205268859863e-01 5.3266309201717377e-02</leafValues></_>
        <_>
          <internalNodes>
            0 -1 460 -3.4384250640869141e-02</internalNodes>
          <leafValues>
            7.0186007022857666e-01 -3.7634752690792084e-02</leafValues></_>
        <_>
          <internalNodes>
            0 -1 150 -4.4733951799571514e-03</internalNodes>
          <leafValues>
            3.2051691412925720e-01 -5.1724229007959366e-02</leafValues></_>
        <_>
          <internalNodes>
            0 -1 918 3.5360460169613361e-03</internalNodes>
          <leafValues>
            2.9587034136056900e-02 -6.3442122936248779e-01</leafValues></_>
        <_>
          <internalNodes>
            0 -1 380 6.2647312879562378e-02</internalNodes>
          <leafValues>
            -6.6580794751644135e-02 2.8232279419898987e-01</leafValues></_>
        <_>
          <internalNodes>
            0 -1 57 5.4034162312746048e-02</internalNodes>
          <leafValues>
            -3.5018041729927063e-02 5.0014054775238037e-01</leafValues></_>
        <_>
          <internalNodes>
            0 -1 844 2.9785060323774815e-03</internalNodes>
          <leafValues>
            -4.2073104530572891e-02 3.7725338339805603e-01</leafValues></_>
        <_>
          <internalNodes>
            0 -1 527 2.9972585616633296e-04</internalNodes>
          <leafValues>
            8.8293887674808502e-02 -2.1394795179367065e-01</leafValues></_>
        <_>
          <internalNodes>
            0 -1 100 -3.0999626964330673e-02</internalNodes>
          <leafValues>
            -4.5910418033599854e-01 3.5778176039457321e-02</leafValues></_>
        <_>
          <internalNodes>
            0 -1 322 -5.2939917892217636e-02</internalNodes>
          <leafValues>
            4.4930627942085266e-01 -4.9043383449316025e-02</leafValues></_>
        <_>
          <internalNodes>
            0 -1 486 -1.1668414808809757e-02</internalNodes>
          <leafValues>
            -9.9290525913238525e-01 2.2618036717176437e-02</leafValues></_>
        <_>
          <internalNodes>
            0 -1 429 -2.2164308466017246e-03</internalNodes>
          <leafValues>
            1.6200016438961029e-01 -1.1892338842153549e-01</leafValues></_></weakClassifiers></_>
    <!-- stage 6 -->
    <_>
      <maxWeakCount>76</maxWeakCount>
      <stageThreshold>-1.1560828685760498e+00</stageThreshold>
      <weakClassifiers>
        <_>
          <internalNodes>
            0 -1 36 2.2229561209678650e-01</internalNodes>
          <leafValues>
            -2.0464655756950378e-01 4.7725161910057068e-01</leafValues></_>
        <_>
          <internalNodes>
            0 -1 674 -7.4847964569926262e-03</internalNodes>
          <leafValues>
            3.1171563267707825e-01 -1.4737024903297424e-01</leafValues></_>
        <_>
          <internalNodes>
            0 -1 244 -8.4465509280562401e-03</internalNodes>
          <leafValues>
            1.6297452151775360e-01 -2.2462725639343262e-01</leafValues></_>
        <_>
          <internalNodes>
            0 -1 708 -1.2655754107981920e-04</internalNodes>
          <leafValues>
            -3.5586392879486084e-01 7.8299745917320251e-02</leafValues></_>
        <_>
          <internalNodes>
            0 -1 307 -1.7443079501390457e-02</internalNodes>
          <leafValues>
            2.5785371661186218e-01 -1.6730728745460510e-01</leafValues></_>
        <_>
          <internalNodes>
            0 -1 617 4.5730579644441605e-02</internalNodes>
          <leafValues>
            -5.4466597735881805e-02 3.4718960523605347e-01</leafValues></_>
        <_>
          <internalNodes>
            0 -1 713 5.9478497132658958e-04</internalNodes>
          <leafValues>
            1.2292672693729401e-01 -2.5363811850547791e-01</leafValues></_>
        <_>
          <internalNodes>
            0 -1 271 4.8550581559538841e-03</internalNodes>
          <leafValues>
            -3.1266041100025177e-02 4.1803175210952759e-01</leafValues></_>
        <_>
          <internalNodes>
            0 -1 639 -3.9135240018367767e-02</internalNodes>
          <leafValues>
            3.7281140685081482e-01 -7.5794942677021027e-02</leafValues></_>
        <_>
          <internalNodes>
            0 -1 503 1.5932921320199966e-02</internalNodes>
          <leafValues>
            -9.2763066291809082e-02 2.9509410262107849e-01</leafValues></_>
        <_>
          <internalNodes>
            0 -1 751 -1.0369777737651020e-04</internalNodes>
          <leafValues>
            -2.4377387762069702e-01 9.6616216003894806e-02</leafValues></_>
        <_>
          <internalNodes>
            0 -1 749 4.2778356000781059e-03</internalNodes>
          <leafValues>
            -7.8288935124874115e-02 2.8955209255218506e-01</leafValues></_>
        <_>
          <internalNodes>
            0 -1 318 1.4879531227052212e-02</internalNodes>
          <leafValues>
            4.4411294162273407e-02 -3.7947896122932434e-01</leafValues></_>
        <_>
          <internalNodes>
            0 -1 752 2.1517025306820869e-03</internalNodes>
          <leafValues>
            -7.9995840787887573e-02 2.9468879103660583e-01</leafValues></_>
        <_>
          <internalNodes>
            0 -1 664 -5.0192058552056551e-04</internalNodes>
          <leafValues>
            -2.8037402033805847e-01 9.8027892410755157e-02</leafValues></_>
        <_>
          <internalNodes>
            0 -1 66 -9.7915553487837315e-04</internalNodes>
          <leafValues>
            2.2147469222545624e-01 -1.2090986967086792e-01</leafValues></_>
        <_>
          <internalNodes>
            0 -1 596 -9.4553269445896149e-03</internalNodes>
          <leafValues>
            2.7609911561012268e-01 -4.9997620284557343e-02</leafValues></_>
        <_>
          <internalNodes>
            0 -1 207 -2.9990527033805847e-01</internalNodes>
          <leafValues>
            8.1466001272201538e-01 -3.8929909467697144e-02</leafValues></_>
        <_>
          <internalNodes>
            0 -1 220 8.7855448946356773e-03</internalNodes>
          <leafValues>
            -9.0287916362285614e-02 2.3179978132247925e-01</leafValues></_>
        <_>
          <internalNodes>
            0 -1 444 1.3250056654214859e-02</internalNodes>
          <leafValues>
            2.9878670349717140e-02 -5.0222915410995483e-01</leafValues></_>
        <_>
          <internalNodes>
            0 -1 896 2.2198678925633430e-03</internalNodes>
          <leafValues>
            -1.0382153838872910e-01 1.8843053281307220e-01</leafValues></_>
        <_>
          <internalNodes>
            0 -1 945 6.3975679222494364e-04</internalNodes>
          <leafValues>
            -1.1817802488803864e-01 1.6823966801166534e-01</leafValues></_>
        <_>
          <internalNodes>
            0 -1 949 -3.3566940110176802e-03</internalNodes>
          <leafValues>
            2.3761150240898132e-01 -7.9830251634120941e-02</leafValues></_>
        <_>
          <internalNodes>
            0 -1 946 1.3148601166903973e-02</internalNodes>
          <leafValues>
            -4.5136757194995880e-02 4.0277880430221558e-01</leafValues></_>
        <_>
          <internalNodes>
            0 -1 188 -8.1726331263780594e-03</internalNodes>
          <leafValues>
            -3.7426343560218811e-01 5.8842808008193970e-02</leafValues></_>
        <_>
          <internalNodes>
            0 -1 732 3.8594070356339216e-03</internalNodes>
          <leafValues>
            4.2696565389633179e-02 -5.1203268766403198e-01</leafValues></_>
        <_>
          <internalNodes>
            0 -1 679 2.1632799878716469e-02</internalNodes>
          <leafValues>
            2.9635565355420113e-02 -5.0716763734817505e-01</leafValues></_>
        <_>
          <internalNodes>
            0 -1 219 -5.6140082888305187e-03</internalNodes>
          <leafValues>
            3.0017071962356567e-01 -6.2627121806144714e-02</leafValues></_>
        <_>
          <internalNodes>
            0 -1 856 2.6999525725841522e-03</internalNodes>
          <leafValues>
            -9.5724597573280334e-02 1.8539983034133911e-01</leafValues></_>
        <_>
          <internalNodes>
            0 -1 745 1.8490303307771683e-02</internalNodes>
          <leafValues>
            4.1820097714662552e-02 -4.5696315169334412e-01</leafValues></_>
        <_>
          <internalNodes>
            0 -1 685 6.8977221846580505e-02</internalNodes>
          <leafValues>
            2.3655163124203682e-02 -7.1452844142913818e-01</leafValues></_>
        <_>
          <internalNodes>
            0 -1 96 -2.2150542587041855e-02</internalNodes>
          <leafValues>
            -4.5924916863441467e-01 3.8363266736268997e-02</leafValues></_>
        <_>
          <internalNodes>
            0 -1 230 -2.3281146422959864e-04</internalNodes>
          <leafValues>
            1.5456639230251312e-01 -1.1493053287267685e-01</leafValues></_>
        <_>
          <internalNodes>
            0 -1 18 1.2553013861179352e-02</internalNodes>
          <leafValues>
            3.9566099643707275e-02 -4.5266756415367126e-01</leafValues></_>
        <_>
          <internalNodes>
            0 -1 1000 1.8141987966373563e-03</internalNodes>
          <leafValues>
            -7.3867157101631165e-02 2.6786148548126221e-01</leafValues></_>
        <_>
          <internalNodes>
            0 -1 989 3.8613663055002689e-03</internalNodes>
          <leafValues>
            3.3389795571565628e-02 -5.7143735885620117e-01</leafValues></_>
        <_>
          <internalNodes>
            0 -1 593 -2.1899989224039018e-04</internalNodes>
          <leafValues>
            -2.4745728075504303e-01 6.4775258302688599e-02</leafValues></_>
        <_>
          <internalNodes>
            0 -1 668 8.5207598749548197e-04</internalNodes>
          <leafValues>
            -9.3416541814804077e-02 2.3078599572181702e-01</leafValues></_>
        <_>
          <internalNodes>
            0 -1 402 2.4446837604045868e-02</internalNodes>
          <leafValues>
            -5.4836083203554153e-02 3.2689473032951355e-01</leafValues></_>
        <_>
          <internalNodes>
            0 -1 572 -1.5164172509685159e-04</internalNodes>
          <leafValues>
            1.6248337924480438e-01 -1.3931535184383392e-01</leafValues></_>
        <_>
          <internalNodes>
            0 -1 55 1.1018076911568642e-03</internalNodes>
          <leafValues>
            -8.5615530610084534e-02 2.0385186374187469e-01</leafValues></_>
        <_>
          <internalNodes>
            0 -1 792 9.7481217235326767e-03</internalNodes>
          <leafValues>
            4.5593358576297760e-02 -3.7621772289276123e-01</leafValues></_>
        <_>
          <internalNodes>
            0 -1 858 8.3942257333546877e-04</internalNodes>
          <leafValues>
            -9.9682785570621490e-02 1.9263741374015808e-01</leafValues></_>
        <_>
          <internalNodes>
            0 -1 607 -6.7103253677487373e-03</internalNodes>
          <leafValues>
            3.0722367763519287e-01 -5.2158631384372711e-02</leafValues></_>
        <_>
          <internalNodes>
            0 -1 270 1.9153740257024765e-02</internalNodes>
          <leafValues>
            1.0401197522878647e-01 -1.7831546068191528e-01</leafValues></_>
        <_>
          <internalNodes>
            0 -1 250 -3.4512735903263092e-02</internalNodes>
          <leafValues>
            -4.2676174640655518e-01 4.0163140743970871e-02</leafValues></_>
        <_>
          <internalNodes>
            0 -1 40 5.5546421557664871e-02</internalNodes>
          <leafValues>
            2.4326717481017113e-02 -6.0565900802612305e-01</leafValues></_>
        <_>
          <internalNodes>
            0 -1 743 -2.3094847798347473e-02</internalNodes>
          <leafValues>
            -3.5267785191535950e-01 4.8216205090284348e-02</leafValues></_>
        <_>
          <internalNodes>
            0 -1 568 1.3052093796432018e-02</internalNodes>
          <leafValues>
            -8.8648565113544464e-02 2.5104701519012451e-01</leafValues></_>
        <_>
          <internalNodes>
            0 -1 605 -1.0733420494943857e-03</internalNodes>
          <leafValues>
            1.4873063564300537e-01 -1.3662214577198029e-01</leafValues></_>
        <_>
          <internalNodes>
            0 -1 998 -3.9628692902624607e-03</internalNodes>
          <leafValues>
            -6.1511045694351196e-01 2.9621239751577377e-02</leafValues></_>
        <_>
          <internalNodes>
            0 -1 808 -1.8426459282636642e-02</internalNodes>
          <leafValues>
            -7.2472548484802246e-01 2.0419022068381310e-02</leafValues></_>
        <_>
          <internalNodes>
            0 -1 27 6.6331662237644196e-03</internalNodes>
          <leafValues>
            1.4218755066394806e-02 -9.4515919685363770e-01</leafValues></_>
        <_>
          <internalNodes>
            0 -1 101 8.3751954662147909e-05</internalNodes>
          <leafValues>
            9.9543020129203796e-02 -1.6556844115257263e-01</leafValues></_>
        <_>
          <internalNodes>
            0 -1 67 2.4353081826120615e-03</internalNodes>
          <leafValues>
            -8.0541841685771942e-02 2.0612952113151550e-01</leafValues></_>
        <_>
          <internalNodes>
            0 -1 215 2.3697069846093655e-03</internalNodes>
          <leafValues>
            -1.2109208852052689e-01 1.3620726764202118e-01</leafValues></_>
        <_>
          <internalNodes>
            0 -1 114 1.1741416528820992e-03</internalNodes>
          <leafValues>
            -1.1930070817470551e-01 1.6241794824600220e-01</leafValues></_>
        <_>
          <internalNodes>
            0 -1 801 1.1434729676693678e-03</internalNodes>
          <leafValues>
            -1.2188700586557388e-01 1.3684979081153870e-01</leafValues></_>
        <_>
          <internalNodes>
            0 -1 688 3.4906364977359772e-02</internalNodes>
          <leafValues>
            -3.9487950503826141e-02 3.8106313347816467e-01</leafValues></_>
        <_>
          <internalNodes>
            0 -1 193 -1.6553290188312531e-01</internalNodes>
          <leafValues>
            3.4586492180824280e-01 -5.3994785994291306e-02</leafValues></_>
        <_>
          <internalNodes>
            0 -1 958 -3.6520068533718586e-04</internalNodes>
          <leafValues>
            1.9896878302097321e-01 -8.6253121495246887e-02</leafValues></_>
        <_>
          <internalNodes>
            0 -1 812 1.5026956796646118e-02</internalNodes>
          <leafValues>
            -9.8581284284591675e-02 1.5761627256870270e-01</leafValues></_>
        <_>
          <internalNodes>
            0 -1 904 2.0188214257359505e-03</internalNodes>
          <leafValues>
            -8.2527182996273041e-02 2.0146223902702332e-01</leafValues></_>
        <_>
          <internalNodes>
            0 -1 421 -6.3483035191893578e-03</internalNodes>
          <leafValues>
            2.5107228755950928e-01 -6.0251474380493164e-02</leafValues></_>
        <_>
          <internalNodes>
            0 -1 473 -7.3633791180327535e-04</internalNodes>
          <leafValues>
            -2.6298844814300537e-01 6.8717330694198608e-02</leafValues></_>
        <_>
          <internalNodes>
            0 -1 323 3.1409814953804016e-02</internalNodes>
          <leafValues>
            -5.2543297410011292e-02 3.2124063372612000e-01</leafValues></_>
        <_>
          <internalNodes>
            0 -1 922 5.1044626161456108e-03</internalNodes>
          <leafValues>
            -5.6481834501028061e-02 2.7873265743255615e-01</leafValues></_>
        <_>
          <internalNodes>
            0 -1 978 3.2549500465393066e-02</internalNodes>
          <leafValues>
            2.4093532934784889e-02 -6.8472516536712646e-01</leafValues></_>
        <_>
          <internalNodes>
            0 -1 595 -3.1903213821351528e-03</internalNodes>
          <leafValues>
            -4.3545401096343994e-01 3.4587215632200241e-02</leafValues></_>
        <_>
          <internalNodes>
            0 -1 268 1.0570164304226637e-03</internalNodes>
          <leafValues>
            -8.0540709197521210e-02 2.1492677927017212e-01</leafValues></_>
        <_>
          <internalNodes>
            0 -1 925 4.5286007225513458e-03</internalNodes>
          <leafValues>
            2.4802099913358688e-02 -6.4558768272399902e-01</leafValues></_>
        <_>
          <internalNodes>
            0 -1 829 8.8777299970388412e-04</internalNodes>
          <leafValues>
            -1.1536530405282974e-01 1.4843444526195526e-01</leafValues></_>
        <_>
          <internalNodes>
            0 -1 723 5.1908218301832676e-03</internalNodes>
          <leafValues>
            -5.8947335928678513e-02 2.7836528420448303e-01</leafValues></_>
        <_>
          <internalNodes>
            0 -1 415 -9.7901569679379463e-03</internalNodes>
          <leafValues>
            -6.3964998722076416e-01 2.8997018933296204e-02</leafValues></_>
        <_>
          <internalNodes>
            0 -1 328 -7.3684630915522575e-03</internalNodes>
          <leafValues>
            -6.6699516773223877e-01 1.8737265840172768e-02</leafValues></_>
        <_>
          <internalNodes>
            0 -1 292 -2.4277800694108009e-03</internalNodes>
          <leafValues>
            1.7148472368717194e-01 -9.1812558472156525e-02</leafValues></_></weakClassifiers></_>
    <!-- stage 7 -->
    <_>
      <maxWeakCount>87</maxWeakCount>
      <stageThreshold>-1.1291146278381348e+00</stageThreshold>
      <weakClassifiers>
        <_>
          <internalNodes>
            0 -1 266 2.3342835903167725e-01</internalNodes>
          <leafValues>
            -1.4322860538959503e-01 5.4321765899658203e-01</leafValues></_>
        <_>
          <internalNodes>
            0 -1 534 -4.9029063666239381e-04</internalNodes>
          <leafValues>
            -4.3455800414085388e-01 1.1945413053035736e-01</leafValues></_>
        <_>
          <internalNodes>
            0 -1 282 7.2688534855842590e-02</internalNodes>
          <leafValues>
            -1.1705095320940018e-01 3.6006245017051697e-01</leafValues></_>
        <_>
          <internalNodes>
            0 -1 599 -6.5131031442433596e-04</internalNodes>
          <leafValues>
            -4.4614809751510620e-01 4.7505516558885574e-02</leafValues></_>
        <_>
          <internalNodes>
            0 -1 560 -6.8833552300930023e-02</internalNodes>
          <leafValues>
            4.2292964458465576e-01 -6.0365505516529083e-02</leafValues></_>
        <_>
          <internalNodes>
            0 -1 245 -7.0154681801795959e-02</internalNodes>
          <leafValues>
            8.0819469690322876e-01 -3.3613432198762894e-02</leafValues></_>
        <_>
          <internalNodes>
            0 -1 298 4.8442423343658447e-02</internalNodes>
          <leafValues>
            -5.0674341619014740e-02 4.9137738347053528e-01</leafValues></_>
        <_>
          <internalNodes>
            0 -1 246 -4.9311434850096703e-03</internalNodes>
          <leafValues>
            1.7241384088993073e-01 -1.4781321585178375e-01</leafValues></_>
        <_>
          <internalNodes>
            0 -1 870 3.4679332748055458e-03</internalNodes>
          <leafValues>
            -6.1748512089252472e-02 2.9008880257606506e-01</leafValues></_>
        <_>
          <internalNodes>
            0 -1 563 -4.3290061876177788e-04</internalNodes>
          <leafValues>
            1.2652178108692169e-01 -1.5839987993240356e-01</leafValues></_>
        <_>
          <internalNodes>
            0 -1 458 1.1134076339658350e-04</internalNodes>
          <leafValues>
            1.1794894933700562e-01 -2.1311783790588379e-01</leafValues></_>
        <_>
          <internalNodes>
            0 -1 604 -1.7607922200113535e-03</internalNodes>
          <leafValues>
            1.8454478681087494e-01 -1.1881928890943527e-01</leafValues></_>
        <_>
          <internalNodes>
            0 -1 447 5.1666586659848690e-03</internalNodes>
          <leafValues>
            -1.1948487907648087e-01 1.5577422082424164e-01</leafValues></_>
        <_>
          <internalNodes>
            0 -1 266 2.3545584082603455e-01</internalNodes>
          <leafValues>
            5.7350236922502518e-02 -4.0774175524711609e-01</leafValues></_>
        <_>
          <internalNodes>
            0 -1 534 7.6151503890287131e-05</internalNodes>
          <leafValues>
            1.7066884040832520e-01 -1.3420514762401581e-01</leafValues></_>
        <_>
          <internalNodes>
            0 -1 690 3.0886754393577576e-03</internalNodes>
          <leafValues>
            -9.6423268318176270e-02 2.1887850761413574e-01</leafValues></_>
        <_>
          <internalNodes>
            0 -1 594 1.2485659681260586e-04</internalNodes>
          <leafValues>
            1.4329417049884796e-01 -1.7817769944667816e-01</leafValues></_>
        <_>
          <internalNodes>
            0 -1 721 -7.1819471195340157e-03</internalNodes>
          <leafValues>
            4.9372047185897827e-01 -3.2630700618028641e-02</leafValues></_>
        <_>
          <internalNodes>
            0 -1 593 -3.2919761724770069e-04</internalNodes>
          <leafValues>
            -2.9101684689521790e-01 6.6819943487644196e-02</leafValues></_>
        <_>
          <internalNodes>
            0 -1 468 1.0262722149491310e-02</internalNodes>
          <leafValues>
            -7.1519203484058380e-02 3.1035390496253967e-01</leafValues></_>
        <_>
          <internalNodes>
            0 -1 159 9.5532208681106567e-02</internalNodes>
          <leafValues>
            3.5094909369945526e-02 -5.1234757900238037e-01</leafValues></_>
        <_>
          <internalNodes>
            0 -1 102 7.4253538623452187e-03</internalNodes>
          <leafValues>
            2.2534307092428207e-02 -6.4911788702011108e-01</leafValues></_>
        <_>
          <internalNodes>
            0 -1 839 -4.3189479038119316e-04</internalNodes>
          <leafValues>
            1.4977413415908813e-01 -1.0845922678709030e-01</leafValues></_>
        <_>
          <internalNodes>
            0 -1 91 -3.2112807966768742e-03</internalNodes>
          <leafValues>
            -7.0361149311065674e-01 3.1481724232435226e-02</leafValues></_>
        <_>
          <internalNodes>
            0 -1 81 -2.7155256830155849e-03</internalNodes>
          <leafValues>
            1.7780777812004089e-01 -9.1672465205192566e-02</leafValues></_>
        <_>
          <internalNodes>
            0 -1 126 9.0566324070096016e-03</internalNodes>
          <leafValues>
            3.2028313726186752e-02 -5.0283229351043701e-01</leafValues></_>
        <_>
          <internalNodes>
            0 -1 506 -1.9562370143830776e-03</internalNodes>
          <leafValues>
            -3.0656236410140991e-01 5.2692048251628876e-02</leafValues></_>
        <_>
          <internalNodes>
            0 -1 512 -4.2940545827150345e-02</internalNodes>
          <leafValues>
            5.5707055330276489e-01 -3.3771291375160217e-02</leafValues></_>
        <_>
          <internalNodes>
            0 -1 506 2.3197419941425323e-03</internalNodes>
          <leafValues>
            5.9271533042192459e-02 -3.1726717948913574e-01</leafValues></_>
        <_>
          <internalNodes>
            0 -1 571 -6.2467728275805712e-04</internalNodes>
          <leafValues>
            1.3393445312976837e-01 -1.1872344464063644e-01</leafValues></_>
        <_>
          <internalNodes>
            0 -1 457 -3.5685938200913370e-04</internalNodes>
          <leafValues>
            1.5864963829517365e-01 -1.1243548989295959e-01</leafValues></_>
        <_>
          <internalNodes>
            0 -1 461 3.2375933369621634e-04</internalNodes>
          <leafValues>
            -1.4924770593643188e-01 1.3323260843753815e-01</leafValues></_>
        <_>
          <internalNodes>
            0 -1 525 -8.9457053691148758e-03</internalNodes>
          <leafValues>
            2.3100119829177856e-01 -7.4629262089729309e-02</leafValues></_>
        <_>
          <internalNodes>
            0 -1 979 1.3487162999808788e-02</internalNodes>
          <leafValues>
            2.9925890266895294e-02 -7.2890520095825195e-01</leafValues></_>
        <_>
          <internalNodes>
            0 -1 663 1.7450302839279175e-02</internalNodes>
          <leafValues>
            -9.4566866755485535e-02 1.7924524843692780e-01</leafValues></_>
        <_>
          <internalNodes>
            0 -1 800 -3.1327406759373844e-05</internalNodes>
          <leafValues>
            1.1909882724285126e-01 -1.8010574579238892e-01</leafValues></_>
        <_>
          <internalNodes>
            0 -1 900 9.0373717248439789e-03</internalNodes>
          <leafValues>
            -2.7413757517933846e-02 5.2296954393386841e-01</leafValues></_>
        <_>
          <internalNodes>
            0 -1 771 -3.2190524507313967e-04</internalNodes>
          <leafValues>
            1.4330680668354034e-01 -1.0779781639575958e-01</leafValues></_>
        <_>
          <internalNodes>
            0 -1 774 -1.2004612945020199e-03</internalNodes>
          <leafValues>
            1.5852898359298706e-01 -1.0315686464309692e-01</leafValues></_>
        <_>
          <internalNodes>
            0 -1 454 -1.2599270849023014e-04</internalNodes>
          <leafValues>
            -1.8166320025920868e-01 1.0059862583875656e-01</leafValues></_>
        <_>
          <internalNodes>
            0 -1 859 5.1123118028044701e-03</internalNodes>
          <leafValues>
            3.8220915943384171e-02 -4.1024309396743774e-01</leafValues></_>
        <_>
          <internalNodes>
            0 -1 479 -1.0656232014298439e-02</internalNodes>
          <leafValues>
            5.7892924547195435e-01 -2.8881270438432693e-02</leafValues></_>
        <_>
          <internalNodes>
            0 -1 841 2.5334125384688377e-03</internalNodes>
          <leafValues>
            -5.7939589023590088e-02 2.5086772441864014e-01</leafValues></_>
        <_>
          <internalNodes>
            0 -1 53 -4.9918042495846748e-03</internalNodes>
          <leafValues>
            -4.3995732069015503e-01 3.4830495715141296e-02</leafValues></_>
        <_>
          <internalNodes>
            0 -1 526 3.5419527441263199e-02</internalNodes>
          <leafValues>
            2.1154306828975677e-02 -6.8675315380096436e-01</leafValues></_>
        <_>
          <internalNodes>
            0 -1 867 -1.7740223556756973e-02</internalNodes>
          <leafValues>
            4.5916455984115601e-01 -3.5224840044975281e-02</leafValues></_>
        <_>
          <internalNodes>
            0 -1 848 3.5743153421208262e-04</internalNodes>
          <leafValues>
            -1.2676487863063812e-01 1.3182230293750763e-01</leafValues></_>
        <_>
          <internalNodes>
            0 -1 356 -1.8913504481315613e-01</internalNodes>
          <leafValues>
            5.6914222240447998e-01 -2.7759961783885956e-02</leafValues></_>
        <_>
          <internalNodes>
            0 -1 285 -2.2929437458515167e-02</internalNodes>
          <leafValues>
            3.2931658625602722e-01 -4.7619450837373734e-02</leafValues></_>
        <_>
          <internalNodes>
            0 -1 908 -8.4744943305850029e-03</internalNodes>
          <leafValues>
            1.7573042213916779e-01 -9.3580648303031921e-02</leafValues></_>
        <_>
          <internalNodes>
            0 -1 153 5.1302805542945862e-02</internalNodes>
          <leafValues>
            -5.0999220460653305e-02 3.1243103742599487e-01</leafValues></_>
        <_>
          <internalNodes>
            0 -1 414 -2.3682639002799988e-03</internalNodes>
          <leafValues>
            -2.7096328139305115e-01 6.8196192383766174e-02</leafValues></_>
        <_>
          <internalNodes>
            0 -1 730 -5.4934778017923236e-04</internalNodes>
          <leafValues>
            1.3345041871070862e-01 -1.1713490635156631e-01</leafValues></_>
        <_>
          <internalNodes>
            0 -1 982 -8.7316818535327911e-03</internalNodes>
          <leafValues>
            -3.1454044580459595e-01 5.1565207540988922e-02</leafValues></_>
        <_>
          <internalNodes>
            0 -1 19 -6.0342340730130672e-03</internalNodes>
          <leafValues>
            2.7328467369079590e-01 -6.2188837677240372e-02</leafValues></_>
        <_>
          <internalNodes>
            0 -1 664 -2.9300770256668329e-04</internalNodes>
          <leafValues>
            -1.8861836194992065e-01 8.1467263400554657e-02</leafValues></_>
        <_>
          <internalNodes>
            0 -1 673 -7.0077599957585335e-04</internalNodes>
          <leafValues>
            1.3903284072875977e-01 -1.2408044189214706e-01</leafValues></_>
        <_>
          <internalNodes>
            0 -1 85 -1.4307398349046707e-02</internalNodes>
          <leafValues>
            -9.1571778059005737e-01 1.9520875066518784e-02</leafValues></_>
        <_>
          <internalNodes>
            0 -1 94 4.0125092491507530e-03</internalNodes>
          <leafValues>
            1.8274836242198944e-02 -5.9010058641433716e-01</leafValues></_>
        <_>
          <internalNodes>
            0 -1 687 1.0312545299530029e-01</internalNodes>
          <leafValues>
            2.0586652681231499e-02 -6.3643741607666016e-01</leafValues></_>
        <_>
          <internalNodes>
            0 -1 624 7.9879984259605408e-03</internalNodes>
          <leafValues>
            -7.0344083011150360e-02 2.1076118946075439e-01</leafValues></_>
        <_>
          <internalNodes>
            0 -1 641 1.0127229616045952e-03</internalNodes>
          <leafValues>
            -1.2634597718715668e-01 1.3382379710674286e-01</leafValues></_>
        <_>
          <internalNodes>
            0 -1 708 2.9880158763262443e-05</internalNodes>
          <leafValues>
            -1.8638336658477783e-01 8.5177898406982422e-02</leafValues></_>
        <_>
          <internalNodes>
            0 -1 592 1.5170026745181531e-04</internalNodes>
          <leafValues>
            7.4507072567939758e-02 -1.9942408800125122e-01</leafValues></_>
        <_>
          <internalNodes>
            0 -1 132 -4.4863969087600708e-03</internalNodes>
          <leafValues>
            1.8142977356910706e-01 -8.4073260426521301e-02</leafValues></_>
        <_>
          <internalNodes>
            0 -1 142 -1.3820655294694006e-04</internalNodes>
          <leafValues>
            -1.6250991821289063e-01 9.0929649770259857e-02</leafValues></_>
        <_>
          <internalNodes>
            0 -1 503 1.5661690384149551e-02</internalNodes>
          <leafValues>
            -6.6833570599555969e-02 2.3140698671340942e-01</leafValues></_>
        <_>
          <internalNodes>
            0 -1 302 5.6999467313289642e-02</internalNodes>
          <leafValues>
            3.0054457485675812e-02 -5.5175203084945679e-01</leafValues></_>
        <_>
          <internalNodes>
            0 -1 576 -7.7497214078903198e-04</internalNodes>
          <leafValues>
            1.6503471136093140e-01 -8.7717883288860321e-02</leafValues></_>
        <_>
          <internalNodes>
            0 -1 603 -1.2041544541716576e-02</internalNodes>
          <leafValues>
            1.5709905326366425e-01 -1.3904273509979248e-01</leafValues></_>
        <_>
          <internalNodes>
            0 -1 7 -3.9242941141128540e-01</internalNodes>
          <leafValues>
            -4.6470740437507629e-01 2.7228660881519318e-02</leafValues></_>
        <_>
          <internalNodes>
            0 -1 784 -5.6094300001859665e-02</internalNodes>
          <leafValues>
            -8.2031285762786865e-01 1.7288019880652428e-02</leafValues></_>
        <_>
          <internalNodes>
            0 -1 664 3.0329677974805236e-04</internalNodes>
          <leafValues>
            4.9843356013298035e-02 -2.7213087677955627e-01</leafValues></_>
        <_>
          <internalNodes>
            0 -1 758 9.2162583023309708e-03</internalNodes>
          <leafValues>
            -3.5819970071315765e-02 4.2247417569160461e-01</leafValues></_>
        <_>
          <internalNodes>
            0 -1 757 5.6866076192818582e-05</internalNodes>
          <leafValues>
            -1.0609118640422821e-01 1.3000887632369995e-01</leafValues></_>
        <_>
          <internalNodes>
            0 -1 662 -2.5775179266929626e-02</internalNodes>
          <leafValues>
            1.3975153863430023e-01 -1.3500058650970459e-01</leafValues></_>
        <_>
          <internalNodes>
            0 -1 488 -2.4637404829263687e-02</internalNodes>
          <leafValues>
            5.4316526651382446e-01 -2.8827581554651260e-02</leafValues></_>
        <_>
          <internalNodes>
            0 -1 297 3.0366798862814903e-02</internalNodes>
          <leafValues>
            3.7813894450664520e-02 -4.1771051287651062e-01</leafValues></_>
        <_>
          <internalNodes>
            0 -1 239 3.7416949868202209e-02</internalNodes>
          <leafValues>
            3.2771982252597809e-02 -4.0395119786262512e-01</leafValues></_>
        <_>
          <internalNodes>
            0 -1 966 -4.0472964756190777e-03</internalNodes>
          <leafValues>
            -7.6331663131713867e-01 1.6981158405542374e-02</leafValues></_>
        <_>
          <internalNodes>
            0 -1 180 -1.1686374247074127e-01</internalNodes>
          <leafValues>
            -6.8765473365783691e-01 1.5642076730728149e-02</leafValues></_>
        <_>
          <internalNodes>
            0 -1 750 3.8220640271902084e-03</internalNodes>
          <leafValues>
            -8.5425473749637604e-02 1.7004007101058960e-01</leafValues></_>
        <_>
          <internalNodes>
            0 -1 13 -8.4927100688219070e-03</internalNodes>
          <leafValues>
            -2.5983065366744995e-01 5.3527213633060455e-02</leafValues></_>
        <_>
          <internalNodes>
            0 -1 453 -2.8305798768997192e-03</internalNodes>
          <leafValues>
            1.2651017308235168e-01 -1.0997724533081055e-01</leafValues></_>
        <_>
          <internalNodes>
            0 -1 743 -2.2741608321666718e-02</internalNodes>
          <leafValues>
            -3.2751947641372681e-01 5.3405627608299255e-02</leafValues></_>
        <_>
          <internalNodes>
            0 -1 761 -1.2099832296371460e-02</internalNodes>
          <leafValues>
            1.5956722199916840e-01 -1.0020008683204651e-01</leafValues></_>
        <_>
          <internalNodes>
            0 -1 183 -2.6578274369239807e-01</internalNodes>
          <leafValues>
            -6.2804859876632690e-01 2.4810964241623878e-02</leafValues></_></weakClassifiers></_>
    <!-- stage 8 -->
    <_>
      <maxWeakCount>100</maxWeakCount>
      <stageThreshold>-1.0709053277969360e+00</stageThreshold>
      <weakClassifiers>
        <_>
          <internalNodes>
            0 -1 566 -5.6399852037429810e-02</internalNodes>
          <leafValues>
            4.1318976879119873e-01 -1.8156635761260986e-01</leafValues></_>
        <_>
          <internalNodes>
            0 -1 375 -5.1992915570735931e-02</internalNodes>
          <leafValues>
            5.1011592149734497e-01 -7.3086127638816833e-02</leafValues></_>
        <_>
          <internalNodes>
            0 -1 747 1.2898094428237528e-04</internalNodes>
          <leafValues>
            9.8679549992084503e-02 -2.7281752228736877e-01</leafValues></_>
        <_>
          <internalNodes>
            0 -1 281 -5.5322289466857910e-02</internalNodes>
          <leafValues>
            3.9694100618362427e-01 -6.7539811134338379e-02</leafValues></_>
        <_>
          <internalNodes>
            0 -1 317 -4.0963903069496155e-02</internalNodes>
          <leafValues>
            4.4074645638465881e-01 -6.1665691435337067e-02</leafValues></_>
        <_>
          <internalNodes>
            0 -1 661 8.7496626656502485e-04</internalNodes>
          <leafValues>
            1.2266987562179565e-01 -1.5800406038761139e-01</leafValues></_>
        <_>
          <internalNodes>
            0 -1 210 5.7031244039535522e-02</internalNodes>
          <leafValues>
            -7.2106994688510895e-02 3.1614619493484497e-01</leafValues></_>
        <_>
          <internalNodes>
            0 -1 208 -3.5617256164550781e-01</internalNodes>
          <leafValues>
            8.8315814733505249e-01 -3.5685400944203138e-03</leafValues></_>
        <_>
          <internalNodes>
            0 -1 833 7.1015616413205862e-04</internalNodes>
          <leafValues>
            -1.4188407361507416e-01 1.5654891729354858e-01</leafValues></_>
        <_>
          <internalNodes>
            0 -1 905 -1.4415107434615493e-03</internalNodes>
          <leafValues>
            1.4716583490371704e-01 -1.2505759298801422e-01</leafValues></_>
        <_>
          <internalNodes>
            0 -1 185 3.0352710746228695e-03</internalNodes>
          <leafValues>
            -1.0053337365388870e-01 1.8837088346481323e-01</leafValues></_>
        <_>
          <internalNodes>
            0 -1 305 -1.4904477633535862e-02</internalNodes>
          <leafValues>
            2.1707060933113098e-01 -1.0419928282499313e-01</leafValues></_>
        <_>
          <internalNodes>
            0 -1 708 -3.5109184682369232e-04</internalNodes>
          <leafValues>
            -3.7449887394905090e-01 5.8809481561183929e-02</leafValues></_>
        <_>
          <internalNodes>
            0 -1 944 8.0922720953822136e-03</internalNodes>
          <leafValues>
            -1.0520736128091812e-01 1.7160464823246002e-01</leafValues></_>
        <_>
          <internalNodes>
            0 -1 898 1.0778952389955521e-02</internalNodes>
          <leafValues>
            5.3439382463693619e-02 -3.4551838040351868e-01</leafValues></_>
        <_>
          <internalNodes>
            0 -1 792 1.1046092025935650e-02</internalNodes>
          <leafValues>
            3.5873133689165115e-02 -4.2067301273345947e-01</leafValues></_>
        <_>
          <internalNodes>
            0 -1 533 -1.3742583990097046e-01</internalNodes>
          <leafValues>
            -7.1591782569885254e-01 1.9445369020104408e-02</leafValues></_>
        <_>
          <internalNodes>
            0 -1 638 -2.7846513316035271e-02</internalNodes>
          <leafValues>
            2.7642315626144409e-01 -5.3054597228765488e-02</leafValues></_>
        <_>
          <internalNodes>
            0 -1 711 -1.2152623385190964e-03</internalNodes>
          <leafValues>
            -2.3547744750976563e-01 8.1720925867557526e-02</leafValues></_>
        <_>
          <internalNodes>
            0 -1 482 -4.5803785324096680e-02</internalNodes>
          <leafValues>
